digraph Tree {
node [shape=box, style="filled, rounded", color="black", fontname=helvetica] ;
edge [fontname=helvetica] ;
0 [label="ca <= 0.5\ngini = 0.49\nsamples = 153\nvalue = [106, 136]\nclass = disease", fillcolor="#d3e9f9"] ;
1 [label="age <= 43.5\ngini = 0.35\nsamples = 90\nvalue = [33, 114]\nclass = disease", fillcolor="#72b9ed"] ;
0 -> 1 [labeldistance=2.5, labelangle=45, headlabel="True"] ;
2 [label="thalach <= 161.5\ngini = 0.49\nsamples = 15\nvalue = [10, 14]\nclass = disease", fillcolor="#c6e3f8"] ;
1 -> 2 ;
3 [label="exang <= 0.5\ngini = 0.42\nsamples = 6\nvalue = [7, 3]\nclass = disease", fillcolor="#f0b78e"] ;
2 -> 3 ;
4 [label="oldpeak <= 0.3\ngini = 0.48\nsamples = 3\nvalue = [2, 3]\nclass = disease", fillcolor="#bddef6"] ;
3 -> 4 ;
5 [label="gini = 0.44\nsamples = 2\nvalue = [2, 1]\nclass = disease", fillcolor="#f2c09c"] ;
4 -> 5 ;
6 [label="gini = 0.0\nsamples = 1\nvalue = [0, 2]\nclass = disease", fillcolor="#399de5"] ;
4 -> 6 ;
7 [label="gini = 0.0\nsamples = 3\nvalue = [5, 0]\nclass = disease", fillcolor="#e58139"] ;
3 -> 7 ;
8 [label="thal <= 2.5\ngini = 0.34\nsamples = 9\nvalue = [3, 11]\nclass = disease", fillcolor="#6fb8ec"] ;
2 -> 8 ;
9 [label="gini = 0.0\nsamples = 6\nvalue = [0, 10]\nclass = disease", fillcolor="#399de5"] ;
8 -> 9 ;
10 [label="chol <= 211.0\ngini = 0.38\nsamples = 3\nvalue = [3, 1]\nclass = disease", fillcolor="#eeab7b"] ;
8 -> 10 ;
11 [label="gini = 0.0\nsamples = 1\nvalue = [0, 1]\nclass = disease", fillcolor="#399de5"] ;
10 -> 11 ;
12 [label="gini = 0.0\nsamples = 2\nvalue = [3, 0]\nclass = disease", fillcolor="#e58139"] ;
10 -> 12 ;
13 [label="slope <= 1.5\ngini = 0.3\nsamples = 75\nvalue = [23, 100]\nclass = disease", fillcolor="#67b4eb"] ;
1 -> 13 ;
14 [label="thal <= 2.5\ngini = 0.46\nsamples = 31\nvalue = [20, 35]\nclass = disease", fillcolor="#aad5f4"] ;
13 -> 14 ;
15 [label="age <= 44.5\ngini = 0.22\nsamples = 22\nvalue = [5, 34]\nclass = disease", fillcolor="#56abe9"] ;
14 -> 15 ;
16 [label="gini = 0.0\nsamples = 1\nvalue = [1, 0]\nclass = disease", fillcolor="#e58139"] ;
15 -> 16 ;
17 [label="gini = 0.19\nsamples = 21\nvalue = [4, 34]\nclass = disease", fillcolor="#50a9e8"] ;
15 -> 17 ;
18 [label="exang <= 0.5\ngini = 0.12\nsamples = 9\nvalue = [15, 1]\nclass = disease", fillcolor="#e78946"] ;
14 -> 18 ;
19 [label="gini = 0.32\nsamples = 3\nvalue = [4, 1]\nclass = disease", fillcolor="#eca06a"] ;
18 -> 19 ;
20 [label="gini = 0.0\nsamples = 6\nvalue = [11, 0]\nclass = disease", fillcolor="#e58139"] ;
18 -> 20 ;
21 [label="age <= 51.5\ngini = 0.08\nsamples = 44\nvalue = [3, 65]\nclass = disease", fillcolor="#42a2e6"] ;
13 -> 21 ;
22 [label="trestbps <= 139.0\ngini = 0.15\nsamples = 18\nvalue = [2, 23]\nclass = disease", fillcolor="#4aa6e7"] ;
21 -> 22 ;
23 [label="gini = 0.09\nsamples = 15\nvalue = [1, 21]\nclass = disease", fillcolor="#42a2e6"] ;
22 -> 23 ;
24 [label="gini = 0.44\nsamples = 3\nvalue = [1, 2]\nclass = disease", fillcolor="#9ccef2"] ;
22 -> 24 ;
25 [label="chol <= 250.5\ngini = 0.05\nsamples = 26\nvalue = [1, 42]\nclass = disease", fillcolor="#3e9fe6"] ;
21 -> 25 ;
26 [label="gini = 0.0\nsamples = 14\nvalue = [0, 24]\nclass = disease", fillcolor="#399de5"] ;
25 -> 26 ;
27 [label="gini = 0.1\nsamples = 12\nvalue = [1, 18]\nclass = disease", fillcolor="#44a2e6"] ;
25 -> 27 ;
28 [label="sex <= 0.5\ngini = 0.36\nsamples = 63\nvalue = [73, 22]\nclass = disease", fillcolor="#eda775"] ;
0 -> 28 [labeldistance=2.5, labelangle=-45, headlabel="False"] ;
29 [label="trestbps <= 169.0\ngini = 0.49\nsamples = 14\nvalue = [8, 10]\nclass = disease", fillcolor="#d7ebfa"] ;
28 -> 29 ;
30 [label="slope <= 1.5\ngini = 0.47\nsamples = 13\nvalue = [6, 10]\nclass = disease", fillcolor="#b0d8f5"] ;
29 -> 30 ;
31 [label="exang <= 0.5\ngini = 0.38\nsamples = 6\nvalue = [6, 2]\nclass = disease", fillcolor="#eeab7b"] ;
30 -> 31 ;
32 [label="gini = 0.48\nsamples = 4\nvalue = [3, 2]\nclass = disease", fillcolor="#f6d5bd"] ;
31 -> 32 ;
33 [label="gini = 0.0\nsamples = 2\nvalue = [3, 0]\nclass = disease", fillcolor="#e58139"] ;
31 -> 33 ;
34 [label="gini = 0.0\nsamples = 7\nvalue = [0, 8]\nclass = disease", fillcolor="#399de5"] ;
30 -> 34 ;
35 [label="gini = 0.0\nsamples = 1\nvalue = [2, 0]\nclass = disease", fillcolor="#e58139"] ;
29 -> 35 ;
36 [label="cp <= 1.5\ngini = 0.26\nsamples = 49\nvalue = [65, 12]\nclass = disease", fillcolor="#ea985e"] ;
28 -> 36 ;
37 [label="restecg <= 0.5\ngini = 0.07\nsamples = 37\nvalue = [56, 2]\nclass = disease", fillcolor="#e68640"] ;
36 -> 37 ;
38 [label="gini = 0.0\nsamples = 23\nvalue = [37, 0]\nclass = disease", fillcolor="#e58139"] ;
37 -> 38 ;
39 [label="age <= 62.0\ngini = 0.17\nsamples = 14\nvalue = [19, 2]\nclass = disease", fillcolor="#e88e4e"] ;
37 -> 39 ;
40 [label="gini = 0.0\nsamples = 10\nvalue = [13, 0]\nclass = disease", fillcolor="#e58139"] ;
39 -> 40 ;
41 [label="gini = 0.38\nsamples = 4\nvalue = [6, 2]\nclass = disease", fillcolor="#eeab7b"] ;
39 -> 41 ;
42 [label="chol <= 264.5\ngini = 0.5\nsamples = 12\nvalue = [9, 10]\nclass = disease", fillcolor="#ebf5fc"] ;
36 -> 42 ;
43 [label="age <= 54.5\ngini = 0.49\nsamples = 10\nvalue = [9, 7]\nclass = disease", fillcolor="#f9e3d3"] ;
42 -> 43 ;
44 [label="gini = 0.22\nsamples = 5\nvalue = [1, 7]\nclass = disease", fillcolor="#55abe9"] ;
43 -> 44 ;
45 [label="gini = 0.0\nsamples = 5\nvalue = [8, 0]\nclass = disease", fillcolor="#e58139"] ;
43 -> 45 ;
46 [label="gini = 0.0\nsamples = 2\nvalue = [0, 3]\nclass = disease", fillcolor="#399de5"] ;
42 -> 46 ;
}